ม,-0.06865095347,0.1436049044,-0.1017545164,0.04645936191,0.3021214902,-0.1191139966,0.1642651409,0.382717371,0.1008610651,-0.03048625961,-0.1021771953,-0.2121607214,0.1040608361,-0.0545759052,0.07387211174,0.05102667585,0.1203759834,-0.05403993279,-0.09895686805,0.1598451883,0.250297904,0.1486542672,0.192663759,-0.01899186149,-0.2892721891,-0.1679174006,0.06058669835,0.1365534663,0.05543924123,-0.220417738,-0.2454816103,-0.07130452991,0.2958531976,-0.2981320918,0.08440972865,-0.1572628915,0.2057493925,-0.2448924035,-0.04590983689,-0.2203285247,0.2636342943,0.05708615482,-0.06665918231,-0.1687913537,0.08403810114,-0.1444001794,-0.1600706428,0.3198438287,-0.1548659801,-0.1682271361,-0.1496325582,0.173834905,-0.169673264,0.1211772859,0.1985688061,0.0487146154,0.1095456928,-0.1133438349,-0.04651400819,0.1253749132,0.426554054,-0.1067979336,-0.2522149384,0.1300197095,-0.2208923697,0.03383856267,0.2535115182,-0.2204645127
ณ,0.08653055876,-0.04727093875,0.0679711327,-0.02858977951,0.1194656864,-0.127897799,0.2463582158,0.3115065396,0.1238077655,-0.02108710445,0.1237482354,0.03753631935,-0.01849976182,-0.2129900604,0.09507921338,0.3219871521,0.08181938529,0.04766948149,-0.08177898824,0.0007445830852,0.3968441486,0.08240736276,0.1546192914,-0.09661220759,-0.2281198055,-0.1284326911,0.1171177402,-0.05767482147,0.09388649464,0.08385780454,-0.04969207942,0.2107082158,0.2226021141,-0.467490226,0.01046952512,-0.06668835878,0.0159194544,-0.2439929396,-0.1241539046,-0.1229834482,0.05617541447,0.04216870293,0.2568525076,-0.1938009709,0.144054994,-0.09870782495,-0.1572882682,0.2496943176,-0.009771137498,-0.3585110903,-0.1572308391,0.145555988,-0.2024387568,0.1845984012,0.2457292676,0.04074701294,0.1172940508,-0.1321599334,-0.04549654946,0.1591471583,0.3071609139,-0.1809320897,-0.08872706443,0.1191142723,-0.08556649834,0.1380182803,-0.05046439543,-0.2098707855
น,-0.08817751706,-0.01956394129,-0.07526430488,-0.02618784644,0.2411033213,-0.08607925475,0.06432214379,0.2721410394,0.02949404158,-0.08190806955,0.06312478334,-0.1330043525,-0.1331851482,-0.03185356036,0.1539278924,0.3160856068,0.1611664146,-0.07032109052,-0.06912056357,-0.032032758,0.3341126144,-0.0200295113,0.1658466011,-0.1731116027,-0.05494730547,-0.06056495383,-0.05141785741,0.09068252891,0.1471256167,-0.118868947,-0.1445772201,0.001275905641,0.1021630242,-0.4703838825,-0.08719734848,0.03175432608,0.009598276578,-0.2947369516,0.009932840243,-0.04853272811,0.09482491016,0.1127845868,0.2740508318,-0.1544965357,0.09876228869,-0.2408809215,-0.0290493127,0.1647724509,-0.1496497393,-0.2990887463,-0.1621600091,0.04359505698,-0.1494734883,0.09178438783,0.2499925792,0.0362175107,-0.02896710113,-0.2235123515,0.0832650438,0.1503677666,0.5015516281,0.04690272361,-0.08335608244,0.1419543773,-0.1618754864,0.1009022817,0.1398233175,-0.08009316772
ง,-0.08265654743,0.05181055516,0.0406569019,0.1681532115,0.3268500566,-0.08614650369,0.2043784559,0.1242929399,0.2336430252,-0.1985732764,0.2380938083,-0.09561018646,-0.1982859224,-0.01331362408,0.0584390834,0.5145560503,0.08284537494,0.04802533984,0.0931789875,0.164585948,0.4993554056,-0.1180470884,0.1261369139,-0.2181869,-0.07185400277,0.07614021748,0.06495635211,0.1123514101,0.09730697423,-0.003298739903,0.006279394962,0.3658650815,0.01201577764,-0.5459450483,-0.1492542177,0.1613743007,-0.09054733068,-0.2740758657,-0.1187777817,0.1237464845,0.008014924824,0.07932274789,0.3305635452,-0.05189175904,0.1401472092,-0.1921034157,-0.01630359516,0.106993407,-0.2133652568,-0.2050954103,-0.3860719502,0.1907533556,-0.1075779796,0.2669490576,0.1033983007,0.1566061825,-0.1379356086,-0.05251552537,-0.1338934004,0.05298408493,0.3377784789,-0.104261376,-0.2366090864,0.2423491329,-0.2114564031,0.1060279533,-0.03067130409,-0.04048063606
ผ,-0.001720286673,0.114771001,-0.1621342599,0.1522874981,0.0478439182,-0.02716614306,0.2735091746,0.1685990393,-0.04137470573,0.2562919557,0.05765476823,-0.0515887849,-0.06641858816,-0.0901587978,-0.1617004275,-0.2923190594,-0.3169569671,-0.604356885,0.0687237978,0.09316033125,-0.2327323556,-0.01534434967,-0.01827539317,0.04026737064,-0.102837652,0.1343592852,0.1905555874,0.007017251104,-0.0614993237,0.1065180749,-0.1329026371,0.02883564867,-0.189649716,-0.1260302812,-0.1896759421,0.1755296141,-0.09958979487,-0.1023079902,-0.01584835909,-0.1844915003,-0.1397352964,0.2508711517,-0.1580416113,0.3336553276,-0.07072258741,-0.1416678578,0.04593494907,-0.2588397264,0.05943132564,-0.316608429,0.2183903158,-0.1164980307,0.01433184929,0.2093550414,-0.2070824951,0.1977189183,0.1054387167,-0.3498730063,-0.2676128447,0.1729253083,0.118538633,-0.2772482038,0.1507444829,-0.1464472413,-0.3231372535,0.1723579019,-0.09226501733,-0.02071417309
พ,-0.1186522692,-0.08683905751,-0.1818655133,0.1465928853,-0.1042845622,0.1379388571,0.1689699143,0.2970803976,-0.1997435093,0.3071403503,-0.1095470935,0.176658079,0.06957881898,-0.003858751385,-0.1220609099,-0.2846975625,-0.3907197714,-0.5910224319,-0.1608208567,-0.08844231814,-0.1948426366,0.2079403549,-0.1825004518,-0.1050883457,0.1856228858,0.1629571617,0.1660527587,0.03195181862,0.102559045,0.03078491241,-0.1196087897,-0.08107254654,-0.05347075686,0.03384532779,-0.2115703076,-0.08534451574,0.121542573,-0.05324435607,-0.02871299908,-0.1707758158,0.01299616322,0.03773281351,-0.2472159564,0.1808491051,-0.1280411035,-0.1011675,-0.1199764609,-0.1117080972,0.1920752376,-0.0974002853,0.007423195522,-0.07246619463,0.03603807464,-0.07694371045,-0.1794948876,0.04173706844,0.2871256769,-0.1928227991,-0.1211325899,0.07365887612,-0.1539860815,0.03298867121,0.1985076815,-0.1122953445,-0.2625547349,-0.02226458676,-0.1398871988,-0.03772968054
ภ,-0.1558178812,-0.02955492586,-0.1796868294,0.1014913693,-0.06538309157,0.01907919534,0.2179178596,0.2452758253,-0.1287953258,0.3611792326,-0.03841744363,-0.01967033185,0.1234675422,0.005647515412,-0.1542764604,-0.3812952936,-0.431027323,-0.3973078728,-0.2520419359,-0.1617672145,-0.2342397571,0.1720521301,-0.1444686651,-0.02496653236,0.1862906367,0.06685450673,0.09266250581,-0.06851068139,-0.06236804649,0.002453619614,-0.2167283595,0.04865945503,-0.004166131839,-0.1227506027,0.03774655983,-0.002549991943,0.08745645732,-0.1007229015,-0.01684349403,-0.06255131215,0.05327237397,0.1707264185,-0.09619817138,0.2922362685,-0.1840878725,-0.07307989895,-0.1133757308,-0.2425557524,0.1635071486,-0.09952222556,0.004469746258,-0.07562880218,0.03902317584,0.0579077825,-0.1722718924,-0.09399377555,0.3933640718,-0.2093688399,-0.01303246897,0.1945445389,-0.0520128496,-0.05527954549,0.1505870074,-0.206831634,-0.3542281985,-0.1071872637,-0.09496126324,-0.1970078051
ป,-0.1973834783,0.1980289966,0.02775673568,0.1908142716,-0.2523359358,0.02818713151,0.2878330648,-0.04757621139,0.2038455755,0.07899389416,-0.02568991296,0.09743764251,0.01535125822,-0.1532907337,0.03284603357,-0.06731496751,-0.361638844,-0.1629180014,-0.05550773069,0.08739969134,-0.06467561424,0.1160034612,-0.2260145247,0.1967520118,0.07344160974,-0.3799430132,0.2182287425,-0.08945757151,0.08371012658,-0.2293397039,-0.08633106202,-0.3026841283,-0.06476154923,0.2305101603,-0.04766587168,-0.06370074302,0.03202904761,-0.0003232699237,-0.1641969234,0.09431032836,0.114600502,-0.01771209389,-0.1641952544,0.02249966003,-0.2106383443,0.03054021671,0.2471697927,-0.1775653213,-0.01625516824,0.02209825814,0.2637414634,-0.1733110845,-0.1250162423,0.06347341835,-0.1516738683,0.1026754901,0.01741489395,-0.2117187232,-0.04969127849,-0.2291847467,0.5879013538,-0.09243758768,0.2115509808,-0.1827024966,-0.00467498647,0.151074633,0.1764945537,-0.2892072797
บ,-0.1091301739,0.2499618381,0.2613192499,0.2060797811,0.09715797752,0.01270512585,0.3390980661,0.2974627018,0.1741225272,-0.04548238963,0.01063733734,-0.1523677111,0.03070510924,-0.3793591261,0.1400054097,0.1723524183,-0.08501040936,-0.08830995858,0.02399959043,0.05289727449,0.01107933652,-0.07703801244,0.05494580418,0.2031001747,-0.08390831202,-0.5128961802,0.05663975701,0.07567228377,-0.05756409466,-0.3059300184,-0.2491266727,-0.1064403951,0.3178284466,0.0462314859,0.02098325081,-0.1767283827,0.364025265,-0.1665039957,-0.2234984338,-0.2730570436,0.177049309,-0.1603333354,-0.1040494367,-0.2610957921,0.02840989642,-0.200624153,0.06506597996,0.1871692389,-0.1485483795,-0.09506122023,0.1458847374,-0.06273317337,-0.05677650496,0.07654604316,0.0858752951,0.1272007376,0.08212816715,-0.1782346368,0.0405699648,-0.2646572292,0.7914238572,-0.1334198564,-0.01647518575,-0.1437119991,-0.1330757588,0.1766734272,0.3050940931,-0.2870382071
ฐ,-0.009036379866,0.09599200636,-0.2022725195,0.238012448,-0.02049783804,0.1376697868,0.2570621967,0.07324370742,-0.1022991166,0.1120129973,-0.1416854262,0.0184459202,0.1528538018,0.1096291766,0.07573650032,-0.1970982999,-0.4563343525,-0.5692695975,-0.04850698635,-0.1436597854,-0.1468198299,-0.06810427457,-0.1716986597,-0.1428025067,0.2029596269,0.07576904446,0.1092371419,0.06319230795,0.07921674848,0.09925342351,-0.0900972411,-0.02188122272,-0.07213640213,-0.07764922082,-0.2000164837,0.1573277712,0.01304881368,-0.2413768619,-0.0492140688,0.01544276718,-0.1416593045,0.006931580137,0.07105652988,0.267981708,-0.09871983528,0.04214424267,-0.05490921065,-0.07355685532,0.02058289573,-0.09267553687,0.03026827611,-0.1237022206,0.1286960393,-0.02728170529,0.004338111728,-0.0246337112,0.1579872519,-0.2194206864,-0.1811290085,-0.0562042892,-0.01329507586,-0.2264337093,0.1972975284,-0.04745193198,-0.1969008297,-0.001427574316,-0.277369827,-0.07084274292
ถ,-0.1187177747,0.008936983533,-0.132787779,0.1799754649,0.003944653552,0.087709032,0.3016419113,0.2549152076,-0.04425576329,0.2301093638,-0.04410007969,0.1351021081,-0.01590494998,0.06972115487,-0.007671724539,-0.1011787802,-0.3320102394,-0.486926198,-0.1268829405,-0.1881938726,-0.07904068381,-0.03703318536,-0.2241885513,-0.0598228164,0.1949554384,0.2020219117,0.102716893,0.0619901754,-0.02038728818,-0.04165797308,-0.07241620123,-0.0458047092,-0.1310053319,-0.009609809145,-0.1456403434,0.2173077911,0.02859390341,-0.06623779982,-0.1763451099,0.07717750221,-0.07263508439,0.09617711604,-0.01899835281,0.07987812161,-0.1024130955,-0.003762079636,-0.03908044472,-0.05107038841,0.1085815728,-0.1500187367,-0.07664694637,-0.1121143699,0.04588077962,0.1221446916,-0.03164555877,0.1368576139,0.3208084106,-0.2362564802,-0.1797571033,0.02025172859,-0.08368124813,-0.1410993785,0.158315897,-0.06733313203,-0.3245134056,-0.01951413229,-0.2411540002,0.008898595348
ฑ,-0.1379791647,-0.07993186265,-0.2433666438,0.05525507033,-0.03720691055,0.005006488878,0.2212866396,0.2053144872,-0.06760942191,0.223805204,0.04392045364,0.02495777979,0.1637484133,-0.01636433974,-0.03443684429,-0.05451912805,-0.2855780423,-0.5197395086,-0.1183638349,-0.1432406604,-0.09250343591,-0.006541190203,-0.1290286481,-0.196412757,0.2234531641,0.2362659574,0.1190950572,0.1137132347,0.008034227416,0.06821008027,-0.05937460065,-0.01788294315,-0.1128139794,-0.2271760404,-0.06836159527,0.08322050422,-0.01825800538,-0.05662194267,-0.1039124578,-0.00333595043,-0.1486827284,0.1559765935,0.08455907553,0.1864244938,-0.09019223601,0.05869712308,-0.03858938441,-0.127958715,0.002898189705,-0.1427628994,-0.1315535605,0.01671409048,0.1772025824,-0.06839530915,0.0007476073224,-0.04646839947,0.2695265114,-0.2751016021,-0.08060120046,0.1996707171,-0.03182219714,0.04008619115,0.148756057,-0.1239747554,-0.2535277009,0.05322756246,-0.2314419597,-0.1034627333
ฒ,-0.03353317827,0.006303604227,-0.02637026086,0.1772173494,0.06431927532,-0.00115039153,0.15920344,0.2540037334,-0.04733579978,0.2144011855,-0.03805238381,0.1861108243,0.176498428,0.1225966588,0.1238398999,-0.118264854,-0.4020725191,-0.5150607824,0.0104450658,-0.1090248227,-0.04168462008,-0.0872265026,-0.269711405,-0.03443178535,0.1660969406,0.2730198205,-0.001144619891,-0.03332114965,0.01419017185,-0.007786838338,0.03064995632,-0.04332412779,-0.1082430333,-0.2515897155,-0.2251104563,0.06188695878,-0.1357205957,-0.06643785536,-0.04895101115,-0.1381318122,-0.003714745399,0.08104810864,-0.07041077316,0.2528724968,0.06758158654,0.00501344027,0.06242874265,-0.1777695566,0.1699739248,-0.1310858727,-0.0881787464,0.1139968857,0.1061599255,0.08646137267,0.124607347,-0.1215662062,0.2364423871,-0.09526014328,-0.08323611319,0.05179101229,-0.1213897616,-0.06987897307,0.07765862346,-0.1109881029,-0.2780998349,-0.1582209319,-0.2960479259,-0.09162855893
ท,-0.06903839856,0.0140753109,-0.2118822932,0.207299158,0.09148608893,0.09775627404,0.2152373791,0.05377209932,-0.03298997879,0.2229223251,0.02317073941,0.1029264331,0.1076004431,0.171590507,-0.01218562108,-0.1460980624,-0.3136715591,-0.4461823404,-0.1979319006,-0.2534069121,-0.01960724592,0.003545052605,-0.2942202985,-0.03713132814,0.08691560477,0.2497164607,0.2119392157,0.04395826906,0.1614261568,-0.03538113832,-0.1155687645,0.1612969488,-0.04059008509,-0.1140587106,-0.2258629501,0.152278021,-0.05310444534,-0.1282867193,-0.0689997226,-0.1350942105,-0.03005450964,0.2194207311,0.03147029504,0.2271230668,-0.1126654968,0.1010944247,0.05816363543,-0.2073775679,0.07881468534,-0.004936144222,0.02149178088,0.02390402369,0.1229171455,0.06893004477,-0.004367957823,-0.1122320965,0.1613732874,-0.1662879139,-0.08442810178,0.07754649222,-0.07347452641,0.004113258328,0.09092020243,-0.2395499349,-0.3328484893,-0.09641923755,-0.1807259172,0.07440458983
ธ,0.01890037954,0.02882607281,-0.06005714461,0.0341687575,0.01290221978,-0.02372149378,0.2086969614,0.1569136828,0.06319023669,0.2224011719,-0.1714878529,0.02726469748,0.06787764281,-0.01017678529,0.02223915607,-0.1957789958,-0.3869378567,-0.3644171357,-0.08931744844,-0.2149915248,0.03200214729,0.09871815145,-0.1544586718,-0.2451437563,0.07907045633,0.1439685822,0.1035268456,-0.01844404265,0.08188452572,-0.0269657243,-0.02982385829,0.1970314533,-0.2390246838,-0.1788544506,-0.2043470591,0.1464954317,-0.009106163867,-0.2021351606,-0.08605790883,-0.06665044278,-0.1206257418,0.184942469,0.1341923028,0.2953574359,-0.01622464508,0.02375057898,0.03579133749,-0.1961717159,0.1476653069,-0.184156388,-0.07676324993,0.01871227846,0.09485327452,-0.00885205064,-0.0805092901,-0.1345215887,0.352434963,-0.1088259295,-0.159667626,0.0538748242,-0.04282520711,-0.1415038705,0.2165055126,-0.2326258719,-0.256755501,-0.02206870168,-0.1849656403,-0.072644867
ฏ,-0.2031621486,0.104313232,0.2083563358,0.1765143722,-0.2442730516,0.06412812322,0.2056298554,-0.05711931363,0.2118092775,-0.07143647969,0.1554886252,-0.01459121238,-0.05008779466,-0.1492972225,0.06845270842,0.05797448009,-0.3164362907,-0.1686248034,0.1703161597,0.01753151976,-0.03213755041,0.1197516546,-0.2201611847,0.04810280353,0.1151128486,-0.03036790341,0.2732411325,-0.1308406293,0.1878928691,-0.231525749,-0.05118508264,-0.06319113821,-0.1401050985,0.01466419734,-0.1602351964,0.08643315732,0.07897730917,0.02501665242,-0.2111578286,0.2625445724,0.00904606469,-0.1717675477,-0.09711544961,-0.1350090951,-0.03470246121,0.04485334083,0.3678653538,-0.03387065232,-0.1287659109,8.81E-05,0.2127818167,0.06189444289,0.01510691643,-0.03703072295,-0.03944708034,4.56E-05,0.04154023901,-0.2836140692,-0.1067172661,-0.438526094,0.4211612344,-0.1976315528,0.2998496592,0.1089897603,-0.1607991308,0.2070715576,0.003171187127,-0.3437137902
ต,-0.08359992504,0.2909833193,0.1004715338,0.329189539,-0.1040785462,-0.05311497301,0.1922767162,-0.2080544531,0.1426027566,-0.1202102154,0.2578389943,0.1569157243,0.06643651426,-0.04640956223,0.1319894195,0.1127436757,-0.3944733441,-0.1681089401,0.07605588436,0.1957588494,-0.03415596113,-0.07918718457,-0.1565524042,0.1467632502,0.1911267042,-0.1162424982,0.1500243694,-0.0312055368,0.1532033533,-0.2265838087,-0.02412625775,0.02532804944,-0.179706648,0.08188246936,-0.02706607431,0.09470099956,-0.05920147151,0.03880306333,-0.2672083974,0.1845147759,0.1851984411,-0.1016331092,-0.02272165008,-0.04087160155,-0.215988934,0.106634602,0.2873898447,-0.04979020357,0.07309111953,0.001598169445,0.1750290245,-0.03541630879,-0.1088323593,0.1010688171,-0.05845550075,-0.000980930985,0.1014478579,-0.3380488753,-0.02194490097,-0.2399229407,0.4923227429,-0.1089903712,0.2685920298,0.05830696598,-0.009351516142,0.2310051471,0.002208633116,-0.2958724201
ฎ,-0.07320859283,0.1533177942,0.1152645499,0.1015398279,-0.0002068181202,0.07841663063,0.2819339931,0.08923788369,0.2302804142,0.1344354749,0.09836583585,-0.007426893339,-0.1266629845,-0.2504994273,0.05500306189,0.3130315542,-0.01552792639,-0.2331866175,0.2011027932,0.1177408546,0.1843320727,-0.2461749017,-0.08031374961,-0.02636423707,0.03781796619,-0.2668935061,0.09684423357,0.06755638868,-0.05317555368,-0.2828991711,-0.1156523228,0.07766653597,0.2351999879,-0.1428099722,0.1112107038,0.01218772028,0.2449084073,-0.006249999162,-0.1633442491,-0.1371454,0.1197626293,-0.197268948,-0.04391802475,-0.3218487799,-0.0128325345,-0.06110722944,0.2121995091,0.2283126116,-0.08877941221,-0.3449290991,0.0258285068,0.04120906442,-0.1814229041,0.280203253,0.09772063047,0.2704425156,0.06113738939,-0.3456201255,0.02468290739,-0.2078775764,0.7390269637,-0.006831423845,0.05380346626,-0.1274192929,-0.2772038877,0.1772279739,0.070220761,-0.2884565294
ด,0.03089406714,0.1247604713,0.1206027344,0.2242559046,-0.06318330765,-0.00580372056,0.412850827,0.1386927366,0.06424432993,-0.06248740852,-0.05184223503,0.03143821657,-0.1086772233,-0.2741375864,0.2392866611,0.4085641503,-0.2238961458,-0.06231347844,0.1256908029,0.1195429936,0.2565373182,-0.1446266472,0.04652955011,0.1351635903,-0.05248411745,-0.2360519022,-0.04371693358,0.04171260074,-0.05217701569,-0.1565850377,-0.1336815655,-0.09271903336,0.1123855934,0.0018063467,0.1188972667,0.002100947779,0.2393950075,-0.2003421783,-0.1862045676,-0.1618350148,0.2376294583,-0.03915008157,0.06983944774,-0.1783512682,-0.04645411298,0.01907243766,0.1520493329,0.06044792756,-0.07568332553,-0.3353008926,-0.1460332423,-0.07733735442,-0.1232286319,0.2322405875,0.08434597403,0.2605101764,-0.0483604148,-0.2675327361,-0.1095075086,-0.1687469333,0.7492560744,-0.1994084865,0.03092481196,0.02157930844,-0.2146922797,-0.02438270859,0.1521091759,-0.3824640214
ข,-0.1121642515,0.05904288962,-0.09615215659,0.1966728121,0.1241890416,0.01452380233,0.1933500469,-0.04931154847,0.06463043392,0.01957528293,0.06359258294,0.1701545268,-0.04333462194,0.07329493016,-0.04114317894,0.1440955102,-0.4390567839,-0.5552883148,0.03534165025,0.01037530601,-0.04866385087,-0.1219675168,-0.1016566381,-0.1790174842,0.1740614176,0.3625511825,0.1573052406,0.1299627423,0.04182356596,0.08646032214,0.08441923559,0.2797649503,-0.1825125664,-0.2437724918,-0.3082024157,0.329169035,-0.1409424692,-0.131726712,-0.2363996953,-0.008614121936,-0.2391839176,0.2032480091,0.09522357583,0.2392255515,-0.06626593322,0.1143305078,0.02427616529,-0.225906536,0.0384509936,-0.183085233,-0.04549035802,0.02553876117,0.2327620387,0.07736167312,0.02284472995,-0.02781603858,0.3121731281,-0.1965980083,-0.206042707,-0.1031871438,0.08136316389,-0.07695107162,-0.003519339487,-0.08807933331,-0.3097737432,-0.01482580043,-0.24949117,-0.1084591374
ฃ,0.02365181409,0.02978371643,-0.1717664301,0.1227840558,-0.02394607104,0.0575370416,0.1533487588,0.1432208568,0.03268036246,0.03550089523,0.1808393896,0.1846328378,0.008103417233,0.07186157256,0.1559314579,-0.04402363673,-0.3940207362,-0.502274394,0.09594186395,-0.07554579526,0.05746792257,-0.02462615818,-0.2142322212,-0.2432246506,0.0862621665,0.2647702694,0.2834798992,-0.01575026475,0.09495071322,0.2215829343,-0.1041564494,0.09124535322,-0.2963043451,-0.246478498,-0.2844058275,0.2617904842,-0.2426910251,-0.121220395,-0.217629686,-0.07722460479,-0.255753994,0.1363337636,0.225636363,0.1497681439,-0.02085452713,-0.04331167787,0.1482091397,-0.05260288715,0.05440992117,-0.2128734291,-0.0333911553,-0.07055149972,0.2549558878,0.1342711151,0.03522052243,0.1268107295,0.2346638739,-0.2793385088,-0.2768598497,-0.09646120667,0.02284087799,-0.1523124427,0.09806684405,-0.06813174486,-0.2791851461,-0.1500930786,-0.3597444892,-0.04370073229
ค,-0.08562830091,-0.05875658244,-0.1695564985,0.2628019154,-0.0425035134,-0.08196432889,0.2258838862,0.1267498285,-0.0471990332,0.1851598024,0.1716949791,0.1773625612,-0.03595089912,0.1046391204,0.1682846248,0.1550248712,-0.3271977901,-0.5156369209,0.03203903884,-0.07877844572,-0.008052711375,0.0624618344,-0.02037266083,-0.2656866014,0.1155576557,0.3192678988,0.2330885828,0.1017105579,0.02540283464,0.16956985,0.07327762246,0.2710688412,-0.2258085907,-0.2479529381,-0.2344073951,0.2722736001,-0.137306124,-0.1295274049,-0.152865082,0.1233756468,-0.1749875695,0.1953475475,0.169313401,0.2851339877,0.1196793541,-0.0213171225,0.08365536481,-0.07132319361,0.0823270157,-0.1848617494,-0.2356122583,0.01242410205,0.2568605542,0.1653637737,0.1376430243,0.1303272098,0.3081144094,-0.2430193871,-0.04417067766,0.07753107697,-0.1088506803,-0.0980534479,0.01538600028,-0.1597218513,-0.3043235838,-0.1409386694,-0.2281133384,-0.005798134953
ฅ,-0.03034797311,-0.1102382988,-0.1263003945,0.103637293,0.159455657,0.04153127596,0.1525544226,0.1136756614,0.1103300303,0.05269530788,0.01752901636,0.009073375724,-0.07496742159,0.1563557386,0.1189286932,0.1531667113,-0.3459282219,-0.5827231407,0.07289712876,-0.000672966009,0.04682430252,-0.05884509906,-0.1593692154,-0.1913925409,0.1875064373,0.2819539905,0.1837759167,0.1275799721,0.05057450384,0.1711526215,-0.09351420403,0.2636984587,-0.1104174852,-0.2107792944,-0.2688726485,0.348231405,-0.08483647555,-0.2976866066,-0.08381896466,0.09712649137,-0.255063802,0.1641766578,0.237314865,0.1318117231,-0.02396363765,-0.03581180796,0.1206806675,-0.2520937622,0.04714921117,-0.1942143291,-0.1594740152,-0.07451977581,0.1224766225,0.05029674247,-0.01211829297,-0.04233249277,0.3423923254,-0.245867312,-0.2057422996,0.1272003502,-0.09906977415,-0.06873480231,-0.001865958213,-0.04628699645,-0.2126223743,-0.151203081,-0.3362520337,0.08853939176
ฆ,0.04454937577,-0.1239710525,-0.2110505998,0.2232613415,0.02247321978,0.05208353326,0.2427193522,0.1461471766,0.06974961609,0.1115870848,0.01877814345,0.05665250868,-0.06652861089,0.1223454848,-0.002282757545,-0.02344177291,-0.350335598,-0.5317621827,-0.08803994954,0.03583767638,-0.06198380142,-0.1099166796,-0.07443393022,-0.2209237367,0.1914910972,0.4361941218,0.1263100505,0.03327018768,0.1982171685,0.2396919131,0.09687358886,0.2109005749,-0.2607064247,-0.2908679247,-0.1256363392,0.3651834726,-0.08335355669,-0.09492409229,-0.2498924881,0.02631122805,-0.08711506426,0.2418378294,0.2290433198,0.1986937672,0.1412452012,0.1156597137,0.01192944776,-0.1457138807,-0.009386515245,-0.1179394275,-0.177852571,0.1370065212,0.2324149907,0.0760615319,0.02079331316,0.09580840915,0.3066812456,-0.2058903128,-0.2394483387,0.03432740271,-0.01067641191,-0.006999375299,-0.0508203432,-0.06970451772,-0.3282979131,0.02164029889,-0.2545939684,0.002872167854
ก,0.1604429483,0.1741488129,0.1146975085,0.3020838201,0.04458656535,0.05251532048,0.3543507755,-0.07342264801,0.1827939004,0.02018477209,0.2613508403,-0.08026777208,-0.2136699706,-0.3774272799,0.2449739128,0.3779616654,-0.2091256827,-0.07805367559,0.196748063,0.1267809719,0.3631781936,-0.1195989996,0.04615459219,0.03279564902,0.08536225557,-0.04530035704,0.01094768569,-0.09079987556,0.01342741214,-0.07983063161,-0.04331919551,-0.0418096222,0.01565212198,-0.3005408049,-0.1007699892,0.2049554288,0.01737594977,-0.1744017601,-0.2602996826,0.1116115674,-0.04417894408,-0.0348220095,0.2682186067,-0.3291538656,0.08160659671,0.06175651401,0.2259954363,0.2171603292,-0.266617924,-0.2255291492,-0.2049287558,0.05119106919,-0.006595156156,0.1110702828,0.02337257192,0.2753034234,-0.1208065003,-0.2963655889,-0.1014590487,-0.2319781482,0.7490648031,-0.132898733,-0.008398881182,0.071424447,-0.3553418517,0.1079077646,0.1385128945,-0.2303593159
อ,0.1214592978,0.3298175633,0.4577058256,0.01909007505,-0.3240441978,0.3622168005,0.1424412876,-0.2697171569,-0.1392330378,0.2338256389,0.1354721189,-0.03040593863,-0.2264010608,-0.1850837171,0.4090448022,0.5044867396,0.02982228249,0.4240527451,0.3107941747,5.88E-05,0.5060998797,-0.5223174095,-0.3630187213,0.03811344877,0.2082415521,-0.2113562226,0.06057695672,0.004310454242,-0.04974099994,-0.3227379024,-0.02041836455,0.09225492924,0.07562150061,0.1916486323,0.1538020223,0.5769327879,0.1250920445,0.1607953608,-0.1842630655,-0.3166831136,0.05362804234,-0.111687474,0.4984453022,-0.6016783714,-0.2021925151,0.3123120666,-0.1979607195,0.3323034942,-0.4084724486,-0.1208227873,-0.2266343236,0.1062871888,-0.03239399195,-0.1051553935,0.4341348708,-0.04328371584,0.142650649,-0.06256427616,-0.01879880764,-0.6250805259,0.4290709794,-0.1919747889,0.05010715127,-0.1717494875,0.08112690598,-0.1242385209,0.1936477125,0.05221729353
ร,-0.04552215338,0.09430003911,-0.1033426374,-0.1078501418,0.2434027493,-0.0628317073,0.2063650042,0.09240783006,0.0431535989,0.03660689667,-0.05060342327,-0.04725233093,0.1255224198,-0.08194439113,0.1478205174,0.2547855377,0.1132623702,0.0209068004,0.007033854723,-0.2293477207,0.2904593945,0.1116343215,0.2956031859,-0.02727308124,-0.1812514961,0.08926087618,-0.1123800427,-0.1922352612,-0.02394985966,0.2140015662,-0.2181073129,0.2750781178,0.2081444263,-0.3625551462,-0.08954502642,-0.1503543705,0.1018148139,-0.05168603361,-0.1735041589,0.08021315187,0.1003306657,-0.09583049268,-0.09021562338,-0.01298518293,-0.05222297832,-0.2397194952,-0.07886914909,0.1962077618,-0.3525233865,-0.2337420136,-0.0858361274,0.1016775966,0.1610498577,0.1943589896,0.2268075049,0.1814518273,0.01082469523,-0.0646064952,-0.2854155302,0.1020821258,0.4855186939,0.2547886372,-0.1617391109,-0.07829863578,0.02165705711,-0.01199939288,0.03098139726,-0.06853710115
ฤ,-0.01163134072,-0.05473295227,0.2765057087,-0.3236815631,0.007537348196,0.1640673578,-0.2796974778,-0.3420593441,0.003720455104,0.01671215147,-0.1775356233,0.1388934106,-0.1379177123,-0.1416256428,0.317862004,0.2640443444,0.2917559445,0.5899125934,0.211162135,-0.2422079295,0.3196524382,-0.3172104061,0.2902397513,0.05599182472,-0.1936742514,-0.3372994959,-0.2440154552,-0.1383987218,-0.04384810477,0.05006130785,0.3025485873,0.03790581599,0.2575572729,-0.05031572655,0.4700827003,-0.0165614821,0.01136519667,0.2936805785,0.05483105779,-0.09737740457,0.1433791369,-0.2538618445,-0.03411023691,-0.4764381945,-0.2207898945,0.05393255875,0.07246781886,0.5675791502,-0.3647657931,-0.1233227253,0.01727971621,-0.09942631423,0.272274375,0.01705414243,0.4315706491,-0.07915480435,-0.08072367311,0.3063718379,0.07847837359,-0.2348502427,0.1067990363,0.1432605088,-0.3751122355,-0.1132046878,0.2882131934,-0.1859626025,0.2983384132,0.2626657784
ฉ,-0.06648170948,-0.1377519071,-0.04107640311,0.05219774693,0.1002299562,0.04960133508,0.270779103,0.06069070101,-0.1248166636,0.2523348331,-0.09771638364,0.1009862795,0.1614055037,0.006525210105,0.07990727574,-0.04103550315,-0.4557179511,-0.4959539771,-0.01348355506,-0.1732763797,0.02368034981,-0.1413131803,-0.211432144,-0.2047612816,0.2954035401,0.2438807487,0.2258507907,0.1168720871,0.1083528176,0.07795976847,-0.1226025745,0.1176779419,-0.05062506348,-0.1554312557,-0.07990498841,0.2722956836,0.0152830435,-0.1301299185,-0.1348169148,-0.07437746227,-0.01333076973,0.122524187,0.07447640598,0.1268263906,-0.1171641573,-0.02831528895,0.1210783198,-0.04586579651,-0.02670302242,-0.1432583332,-0.156777665,-0.01939802244,0.2227753848,-0.07419874519,-0.03942394257,-0.08741559088,0.3619271517,-0.2083083987,-0.1143038496,-0.04873332381,-0.003143771552,0.04601411149,0.1194746271,-0.1290902346,-0.2753559947,0.002756557427,-0.2861076891,-0.08742765337
ช,-0.1808810979,-0.1584597975,-0.2410289198,0.09315142781,0.05006980896,0.1745115072,0.2856550813,0.2016480714,-0.03808779642,0.2806274295,0.04102891684,0.06068374962,0.09554749727,0.2137433738,0.1519600302,0.03177908063,-0.2540912926,-0.545398891,-0.0123308897,-0.2619743645,-0.005603323225,-0.02429845184,-0.1959995031,-0.1594524384,0.143016845,0.2512587011,-0.005005570594,0.1130042598,0.0812780261,0.09620667994,-0.0001618753449,0.1482384205,-0.1602222919,-0.2199417949,-0.1338772029,0.2491516471,-0.0001415166334,-0.146556735,-0.1773717254,0.0238171462,-0.003310392844,0.02310061827,0.1689480394,0.1085649133,-0.02293504775,0.08711346984,0.1364593506,-0.1662720591,0.06363428384,-0.01430633757,-0.1204468161,-0.03531282768,0.1198059097,-0.06982093304,0.0999622792,-0.1421400011,0.3302547634,-0.1567012072,-0.05904877931,-0.005321195815,-0.1587004662,0.01537775062,-0.05508659407,-0.2053983957,-0.2682901025,-0.07440559566,-0.1732454151,-0.0498383753
ฌ,-0.1620759219,-0.1418826729,-0.2356612384,0.0606652014,-0.06276901066,0.01842532493,0.2998402119,0.005909995642,-0.1335680783,0.286871314,-0.07340817899,0.2156657726,0.158176586,0.06916313618,0.09318384528,0.06924585253,-0.3533255756,-0.4624188244,0.03809484094,-0.2554160655,-0.1076902971,0.0373878628,-0.2003785372,-0.2440358251,0.1577763557,0.2735953629,0.1870348155,0.01077983622,-0.0532874912,0.04079356045,0.02411888167,0.2025895119,-0.152973026,-0.1282315999,-0.1441341341,0.178918615,-0.03204273432,-0.156222403,-0.2317601293,-0.04944937676,-0.1689670682,0.1393329799,0.1622245759,0.1351495385,-0.07398954779,-0.02577158436,0.07325679809,-0.05793640018,0.1339215189,-0.03519168496,-0.2395422012,0.01159477513,0.1755435765,0.0906528011,0.1348693967,-0.1567285359,0.2269293517,-0.1162268817,-0.2004707009,0.01680930704,-0.0872072503,0.06122949347,0.1371600777,-0.06186564639,-0.1053821966,0.007793691009,-0.2665202022,0.08445809036
จ,-0.01685752533,0.2723549306,0.2140218765,0.121132873,0.01983439736,0.1503971666,0.3381835818,0.09726887941,0.2140244544,0.0769309774,0.1371653676,-0.00388747151,-0.07757321,-0.1919287145,0.2220315784,0.3918343186,-0.1301915348,0.0196158085,-0.01090281177,-0.065260984,0.1849244088,-0.2426840216,0.08500264585,0.1910834908,0.02827615477,-0.07902406156,0.1403558254,0.1003992632,0.1754321456,-0.2691342533,-0.01515507419,-0.04602703452,0.07818845659,-0.06677591801,0.112330921,0.1527105421,0.2388251424,-0.1861404628,-0.1049041674,-0.08967689425,0.02262801677,-0.08885496855,0.2199505717,-0.2006924003,-0.1404230893,-0.08586743474,0.2055118829,0.1593997478,-0.2062266022,-0.2759316564,-0.1519983858,-0.053632617,0.09875646234,0.07009857148,0.2267659456,0.03482720256,-0.02838658541,-0.3517230451,-0.1189154238,-0.3244034946,0.7944817543,-0.1644237339,0.1360201836,-0.1113107353,-0.1214404479,0.09112695605,0.07066594064,-0.1588908732
ศ,-0.07320374995,-0.08888493478,-0.05358679965,0.2278883457,-0.091528669,0.05381333828,0.1500643194,-0.1068838388,0.1731826216,-0.05480114371,0.02216705866,0.02325765789,0.07953829318,0.09460939467,0.1039179191,0.1016227305,-0.2985039055,-0.1734558344,-0.06046286225,-0.04409868643,0.1738376468,0.2440306395,-0.0877617076,0.06952246279,-0.05382915214,-0.06191651151,0.1993767619,-0.09535226971,0.07358101755,0.1101798713,-0.04393311962,0.00151899294,-0.259272933,-0.07818290591,-0.1906367838,0.04872692749,-0.008362533525,0.03561100364,-0.1161307916,0.3585362434,0.02073663287,-0.01085626986,-0.09495469183,-0.004855204839,-0.1314588785,-0.05129625648,0.2008745521,-0.03342229128,-0.08890110254,-0.01438960526,0.06420341134,0.03532245383,0.06222337112,-0.05220789835,0.06198956817,0.02772117034,-0.03358676657,-0.01383522339,-0.1423477381,-0.1403774768,0.2894308567,0.1485320032,0.1068712622,-0.09874738008,0.1289421022,0.248277694,0.08824666589,0.04748952016
ษ,-0.1901365817,0.1179831028,-0.05927429348,0.1999794096,-0.009332067333,-0.06008492038,0.08952526003,-0.03883544728,0.0281417761,-0.1632201821,-0.09286159277,0.1112694889,-0.05324153602,-0.08665614575,0.1034192517,0.09806262702,-0.1143172979,-0.1820979118,0.03879331052,-0.0441692695,0.1119090617,0.1653758585,-0.08320358396,0.1729143113,0.1297933012,0.1398092359,0.24874717,0.03755574673,0.1110429466,0.003992310725,0.03171829134,0.1446610093,-0.1088757589,-0.02639848739,-0.06266405433,0.02958958782,-0.1251920164,-0.04222062975,-0.02797995508,0.3436678946,0.1457139552,0.03461803123,-0.1708928198,0.08700224757,-0.1210554466,0.02305740304,0.1813940555,-0.1631017774,-0.1117629856,-0.1262044907,0.02808260359,0.0197020676,0.1277308911,0.03822465986,-0.06624060124,-0.145160228,0.1114983782,-0.004897766747,-0.1909787208,-0.2197099775,0.3080007136,0.09773418307,0.03269674629,-0.0781289041,0.2314960808,0.2208444476,0.09286610037,-0.08705736697
ส,-0.07351759821,-0.03315028921,0.02903722227,0.03203597665,-0.03498578444,-0.01785252057,0.2074434608,-0.1742452383,0.02448580042,-0.143177107,0.09843602777,0.164110139,0.01194124855,0.1010178402,-0.03561873734,0.14260149,-0.1733804196,-0.1590064317,0.0540564619,-0.00369774946,0.02567320131,0.2011644542,-0.06479465216,0.05928874016,-0.01379228383,0.03486325592,0.2407570481,-0.02014002204,0.1594911814,0.1672249883,0.001804130152,0.1034442484,-0.08992812783,-0.06750508398,-0.2094635218,-0.1577355266,-0.07978747785,-0.1382096857,-0.1139485389,0.3096083999,0.2290767431,-0.1732169092,-0.0464640148,-0.006087351125,-0.207440123,-0.09081321955,0.2119977623,-0.03621415794,-0.06566695124,-0.04493578523,0.1201942116,0.1040243804,0.1763239354,0.05739824474,-0.04113582149,-0.05105593055,0.08050857484,-0.09194619954,-0.08651139587,-0.3194328845,0.2195339352,0.0888261199,0.09080076963,0.01076531783,0.00554886274,0.09161929786,-0.003784756875,-0.1104714647
ซ,-0.2115101814,0.1172952056,-0.1065709367,0.06512904167,0.004977747798,0.03944231942,0.1908597797,-0.1549195796,0.121187292,-0.04596440122,0.01567265764,0.1054401472,-0.006457757205,0.1182881147,0.1201539561,0.1139025241,-0.1198159531,-0.09689266235,0.06126581877,-0.0298553817,0.08593977243,0.2517304122,-0.007390778512,0.001506313216,-0.08162662387,0.09068398178,0.231205374,-0.1180706173,0.2322164327,0.1844291985,-0.05586697161,0.1159342527,-0.1759068966,-0.2494977117,-0.04847769812,-0.04041539133,-0.1970650107,0.01522887778,-0.1537875533,0.332536757,0.09121319652,0.06439363956,-0.1638223678,0.05165769532,-0.104152903,-0.06542372704,0.1016382352,0.04247182608,0.06492447853,-0.001171440934,-0.1171753481,0.02166779153,0.05524891615,0.03188390657,-0.01666062698,-0.108376272,0.1348575503,-0.08723700047,-0.03529045358,-0.2348748147,0.1345906258,0.1882712841,0.09001238644,0.0286129564,0.1361061931,0.1114393473,0.1491932273,-0.03571658581
ฝ,-0.1832464337,0.08868789673,-0.05423884466,0.1501649767,0.06166437641,0.0110792378,0.1895439178,-0.06526777148,-0.01418318599,0.07544138283,-0.01621152274,0.07624225318,0.1006240472,0.1179958284,-0.03342397138,0.04604774341,-0.298058778,-0.06162421778,-0.1160603166,-0.243966341,-0.1007834598,0.1130150557,-0.07530931383,0.1623485684,0.05666979775,-0.1924363226,0.135268122,-0.09779693186,0.1241910011,0.04058519378,-0.07612600178,-0.1565921158,0.07172390819,-0.08277807385,-0.1289336979,-0.3002919853,0.192335248,-0.1129285768,0.03879497945,0.07032059133,0.1764554083,-0.227696836,-0.3093698025,0.01779142395,-0.3225409091,-0.0685044229,-0.05067488551,-0.1435470581,0.03086910024,-0.06829734147,0.1241810322,-0.01214754116,0.09319385886,-0.09495114535,0.007448460907,-0.08191117644,0.2018737942,0.007537187543,-0.08277468383,-0.1766812056,0.2433475256,0.1634539962,0.200912118,-0.1948087811,0.144720763,0.1921980977,0.1529189348,-0.05930022523
ฟ,-0.2217986137,0.00711643137,-0.00606095558,0.1474077702,0.04267340899,0.1283357739,0.2221546322,0.04670415074,-0.02482098714,-0.0387792252,-0.2614370883,-0.03284571692,0.2404654026,0.001755541889,0.07376105338,-0.01220133342,-0.1371142566,-0.01782345958,-0.02402102016,-0.1198634356,0.01271954924,0.2452473789,0.03996303305,0.08863306046,-0.01823155954,-0.1199849099,0.008145544678,-0.1533587575,0.2115456313,-0.0515698418,-0.06367182732,0.07588939369,-0.1447494328,-0.2211333662,-0.1603143066,-0.1688530743,-0.03292426094,-0.1218717769,0.04812579229,0.1817948967,0.2073881924,-0.1230789796,-0.2097129226,0.1562389731,-0.2256976962,0.06961379945,0.03594036028,-0.1042962968,0.1334398389,-0.02604336478,0.1393490881,-0.04237817228,-0.01413533185,0.143399477,-0.0682599172,-0.1541077644,0.1291051209,-0.04561601207,-0.1858731359,-0.03814242035,0.1859615147,0.2060645372,0.04536448792,-0.05809732154,0.2092316449,0.08905306458,0.09319864213,-0.144877851
ห,-0.07890683413,-0.01735533588,0.05095291883,0.1182822734,0.008684807457,0.08590139449,0.09356416017,0.1212083548,-0.003396374639,0.04464899749,-0.2014947832,0.1715373844,0.2039089501,-0.08695931733,0.02480139397,-0.06836627424,-0.295201242,-0.09541982412,0.07609771192,-0.0883840546,-0.02321347035,0.1315940171,-0.1283471584,0.0238906946,0.1165580451,-0.1482633203,-0.004600367974,-0.1325862706,0.06818994135,-0.067581065,0.01212040894,-0.1402319372,-0.1392825693,-0.1052838117,0.00342016574,-0.3007541001,0.05023671314,0.0616199933,-0.03412927687,0.2592956126,0.2174555361,-0.1533867121,-0.3059925735,0.04966498911,-0.3392910957,-0.01084315311,-0.04945870116,-0.1017481163,-0.02674064785,0.06633861363,0.1102963537,0.04177086428,0.03862816468,0.1639009863,-0.04423980415,-0.09413547814,0.2025667876,-0.08246964961,-0.06115335599,-0.1040450782,0.2629039288,0.1766320616,0.0821737051,-0.2210031003,0.04659994319,0.1464170665,0.2398283184,-0.1364584267
ฮ,-0.1286471784,-0.0719640851,-0.1673713326,-0.07324693352,-0.1010355353,0.1596380323,0.1202736795,0.1243580878,-0.01825694554,0.05792905018,-0.09979860485,0.07961220294,0.2100557834,0.06745155901,-0.005862331949,-0.06308311969,-0.2676323354,-0.1098614484,-0.1496630758,-0.2206746936,-0.01291938405,0.2300866395,-0.004142195452,0.2193623781,-0.03938590363,-0.1079064012,-0.06072507426,0.005937691312,0.2091948241,0.05326224118,-0.0452177003,-0.01961059496,-0.05587558076,-0.1362875104,-0.09030155838,-0.1499223113,0.08539679646,-0.09720700979,-0.02853356116,0.1385632008,0.2256245315,-0.1749074161,-0.3050481975,0.06342551112,-0.2909606099,-0.05505416542,-0.1022765413,0.05066755787,0.09265979379,0.01229719818,-0.02182067558,0.1025808901,-0.01126394887,0.002963215578,0.07853016257,-0.1779257804,0.2023285478,-0.04698711261,-0.1571635306,-0.1134740114,0.2541231215,0.08885096014,0.1166664809,-0.01018942893,0.112807855,0.2538534403,0.2042697221,0.03015132062
ญ,-0.1182331443,0.001105295145,-0.02119379677,-0.04551816732,0.2303702235,-0.08630720526,0.1907117963,0.05385273695,0.05474037305,-0.04289713129,-0.08625978231,-0.02898991853,0.05443498865,-0.1014910564,0.1695883423,0.3267807662,0.1625156105,-0.07728228718,0.09413012862,-0.2527908683,0.3332564533,-0.01440648176,0.2868149579,-0.09608325362,-0.03542264923,0.125538826,0.03358861059,-0.05996964127,0.09007297456,0.2205832303,-0.1656287014,0.1434838921,0.05050094426,-0.5201400518,0.02050139941,-0.03769019619,0.0721494779,-0.193039313,-0.2217009068,0.1218899414,0.06156959385,-0.0007041274803,0.2096805125,-0.1757091284,-0.03518402204,-0.2103593946,-0.01600617543,0.1829228103,-0.2605161369,-0.2899034619,-0.1965776086,0.1934430003,0.09098014235,0.04479593411,0.2701122463,0.1234807968,0.1230061278,0.05045533553,-0.1134404317,-0.09885782748,0.3668939173,0.05715373531,-0.1649637222,-0.1021881625,0.0651960969,0.06867837161,0.1710834652,0.1037403122
ย,0.2739846408,0.1499398649,0.3144044578,0.03240003064,0.2147303969,0.1855685711,-0.05967433006,-0.221310392,-0.1310639381,0.1571043134,-0.07949984819,-0.1315088719,-0.2744725943,-0.1486038268,0.2268580347,0.1625232697,0.319617182,0.2065394968,0.325535357,-0.005042167846,0.3084349632,-0.2723610997,0.009348853491,0.04707729071,-0.1536537111,0.1037491933,-0.1903935969,-0.1292690784,-0.1030897573,0.2551869154,-0.1019060016,0.2171082795,0.07202257216,-0.1743366718,-0.05763963982,0.3964368403,-0.1445689797,0.01238384005,0.09517856687,-0.1709415168,0.1351467818,-0.09989379346,0.3292784989,-0.1707418561,-0.1216818094,0.05637553334,-0.2394033372,0.1629084051,-0.5312383771,-0.1303012222,-0.09305045009,0.2932801247,-0.01878015511,0.2208543122,0.5527359247,0.2061240971,0.006961604115,0.009421014227,-0.2935993671,-0.1742210686,0.1134141833,0.02449937537,-0.3705163598,-0.1066582054,0.04505791515,0.01295717154,0.007557565812,0.2898765802
ว,0.3141179085,0.4749369919,0.2600252926,0.08461195976,0.3548917174,0.08123097569,0.006477916613,-0.0143398568,-0.3219622374,0.04356618971,0.08675540984,-0.2947255373,-0.2515435815,-0.09570670128,0.1187741384,0.12641339,0.3808972239,0.03629389033,0.3783452213,0.1278304756,0.2158934027,-0.003828133689,0.2754668295,-0.03038612753,-0.5919784307,0.002498439979,-0.02266639471,-0.2454376221,-0.2098566294,0.3065758944,-0.1351228058,0.1077903062,0.1095168665,-0.09624522924,0.09855629504,0.2623116374,-0.3578527272,0.164110139,0.1910450459,-0.3569496572,0.156915009,-0.1021875218,-0.08404570818,0.05433445796,-0.01895636879,-0.1025740281,-0.1802113354,-0.1641548574,-0.5595229864,-0.2180455476,0.2395311445,0.08892931789,-0.1625127345,0.3283966184,0.4344589412,0.4019328356,-0.2863194346,-0.07295755297,-0.49326998,0.09945390373,0.267578423,-0.03164374828,-0.3855845928,-0.03588208556,-0.3162638247,0.1088112071,0.2749197483,0.2387762815
ล,0.06995197386,0.08211245388,-0.0164073389,-0.08087239414,0.4434657097,0.1550249606,0.222414732,0.142816633,-0.02342422493,0.02457974851,-0.3123834431,-0.1437667161,0.0150232641,-0.01617014781,0.2372241467,0.224751845,0.04406790808,-0.07940202951,0.1037525907,-0.1817124933,0.1746533811,-0.003444916802,0.3562580943,0.1989457905,-0.2600436509,-0.02553465031,-0.04922976345,-0.2234553546,0.05827557668,0.33409971,-0.192822814,0.2793621719,0.2311338782,-0.530089736,-0.02703464031,-0.1751326919,0.01830126531,-0.1396197379,-0.01463284995,0.1568014771,0.2906351089,-0.141206339,-0.05550331995,0.006348922849,-0.2672019303,-0.2531419992,0.05585744977,0.13510409,-0.3179582655,-0.1604867876,-0.1321937442,-0.03286634758,0.2356840819,0.1256500036,0.1095414013,0.07276633382,-0.09856437892,-0.1197002754,-0.3380081654,-0.0491367355,0.3976376653,0.3165542781,-0.1745130569,-0.202346608,0.1535200477,0.01595594175,0.1604657471,0.1876871139
ฬ,0.06638308614,-0.1366674751,-0.08725399524,0.06513235718,0.4001665413,0.09477109462,0.1996188164,0.03394985572,0.005226348061,0.1634270847,-0.1927331388,-0.07632365823,0.01845496148,-0.0476474762,0.08627145737,0.2769293785,0.07511309534,-0.01856858283,0.02845977806,-0.1924227476,0.2129359692,0.1454377621,0.3182317317,0.01735166647,-0.1697920412,0.1190575808,-0.0006239825743,-0.1227830797,-0.08845476806,0.2093729824,-0.167766273,0.267568469,0.1675572544,-0.5779123306,0.1418211013,-0.04136284813,0.1419596523,-0.006024631206,-0.1277267188,0.248961404,0.3210600913,-0.2288685143,-0.2102482915,0.1261539161,-0.2937840223,-0.1284418255,-0.07920258492,0.1881226897,-0.3207901716,-0.1361768842,-0.0866420418,0.113090381,0.1017232463,0.12043605,0.2583760321,0.2244324833,-0.1301218718,-0.04586464167,-0.4096861482,0.01051430497,0.4944921136,0.2560567558,-0.2402560711,-0.2597542107,0.1423285455,0.1506073922,0.160169825,0.1321853846
ฦ,-0.05991188064,0.0800870806,0.2456380278,-0.4347186089,-0.02102357708,0.2418754846,-0.1153652146,-0.1854228675,-0.1130058169,0.004262566101,-0.2645082474,0.03448400274,-0.3313564062,-0.1146116629,0.287550807,0.2354779243,0.4520792961,0.7030781507,0.1955848336,-0.2460441887,0.03740957007,-0.3365997374,0.1374726743,0.3139593899,-0.1931852698,-0.3071207702,-0.428186357,-0.2823797166,-0.06282825023,0.3063253164,0.2718705535,0.1448171884,0.3697701395,-0.165874213,0.5387938023,0.005020119715,0.0009544047061,0.3274928927,-0.1629340053,0.09104721248,0.2450016141,-0.378169179,0.1183263138,-0.4075474143,-0.3016137779,0.02148700692,0.1073031574,0.5562076569,-0.3054801524,0.06370103359,0.1599065363,-0.04363697022,0.1959572434,-0.07827746868,0.4557032585,-0.02869767137,-0.03205285966,0.1989989132,-0.1400680244,-0.06655251235,0.1884338558,0.3368866444,-0.3412430286,-0.1026969925,0.4046142101,-0.05647378787,0.2027492374,0.3316158056
ิ,-0.1107543483,-0.03108354099,0.08913109452,-0.1188134179,-0.1394803226,-0.07984212786,-0.4056753516,-0.1125273257,-0.2428528219,-0.02345654182,-0.1445585787,-0.09260036796,-0.2050765008,-0.09192302823,-0.105609253,-0.1745123565,0.3363488615,0.5112746358,0.1041064411,0.03260672837,0.01779625565,0.165582329,-0.007929313928,-0.0651018247,-0.1526659429,-0.1618783772,-0.1371185184,0.005364916287,0.03380024061,-0.07134316862,0.2042530477,-0.2527115941,-0.113823086,0.2195603102,0.06468494982,-0.002544024494,-0.03059353493,0.2549888194,0.2223148793,-0.2194529474,-0.05624588206,0.1923647672,-0.1687173545,0.02046470158,0.001515104435,0.06393971294,-0.1448010355,0.1261017174,0.1369374245,0.1337288022,0.09370300919,0.06325960159,-0.229513824,-0.2352128029,0.09255520254,-0.2322107255,0.07278527319,0.1202196553,0.1702900678,0.07367441803,-0.3770462871,-0.1140422449,0.006689171772,0.3327384889,0.04697972909,0.1090536267,0.03311051428,0.08233769983
ี,0.05376609787,-0.1372227669,-0.2659980059,0.06182298064,-0.4317871928,-0.1590044498,-0.5876771212,0.1055347249,-0.02403262258,-0.09299003333,-0.05781347305,0.002634273842,-0.1799214929,-0.007730511483,-0.1926647425,-0.3455331624,0.2045652121,0.6328097582,-0.05987126753,0.08011399209,-0.1214799732,-0.1881497651,-0.04690307751,-0.2401245236,-0.1168313399,-0.08968371153,0.1575621814,-0.1380697042,-0.2788247466,-0.04523440823,-0.1563569605,-0.2254719883,-0.07293645293,0.4373990297,0.1974688321,0.1088137254,-0.05252538621,0.2689267695,-0.003165384755,-0.06147606298,0.02043729275,-0.1049284562,0.05223078653,-0.2833591104,0.2935233414,0.1103255674,-0.1890036613,-0.05362409726,0.1293297112,0.2251863182,0.09955833107,0.3688970208,-0.3077858686,0.04960408434,-0.04893686622,0.1631195843,-0.1799004823,0.4024228156,0.3038434386,-0.05229432136,-0.542961359,0.2327367663,-0.109384574,0.08418887854,0.3965137005,-0.2022892833,0.02879214473,0.2123299837
ึ,0.003227752633,0.001829655375,0.2574616075,-0.2472831309,0.06007431075,-0.04993078485,-0.3100274205,-0.4307220876,-0.4349933267,-0.1279774159,-0.1345600188,-0.249255389,-0.02753849141,-0.02107430063,-0.128492713,0.03415048495,0.3344586492,0.2076740116,-0.05545234308,0.1606898308,0.04695604369,0.06492117792,-0.2411881536,0.1134797856,-0.05915109813,-0.04082692415,-0.2860687971,0.03820895404,-0.2437438369,-0.1531318277,-0.01008709893,-0.3312052488,0.008623958565,0.4043069184,-0.006304898765,-0.0517244339,-0.1593497843,0.1391284913,0.4076924026,-0.4046371579,-0.02000601776,0.2014350444,-0.243811816,-0.1605203897,0.147847414,-0.02762436308,-0.188138634,0.1302450001,0.02102234587,0.5676071644,0.1956959963,0.01077263057,-0.287825048,-0.3886160254,-0.2351665944,-0.3955978453,0.1626731306,0.06947252899,0.1781942099,0.233678475,-0.4841167629,0.03581161052,0.07981158048,0.3820440769,-0.00783023145,0.1456842124,-0.09267188609,0.1437793523
ื,0.1707676202,-0.2503277659,-0.01953841001,-0.0614872016,-0.1901459694,-0.08205420524,-0.6279352903,-0.2080846876,-0.3709709048,0.05256252363,-0.07124114782,-0.2253497541,-0.1522690356,-8.00E-05,-0.05740769207,-0.05378409475,0.2455409169,0.5818919539,-0.2363577783,0.04733597487,-0.2588499784,-0.1610715091,-0.1903558522,-0.2173296213,-0.2542763948,0.1200454831,-0.1098520681,-0.1207563356,-0.4103285372,-0.1660113335,-0.01239437703,-0.3802811801,0.08978758752,0.3969449699,0.1868766397,0.05065379664,-0.101230517,0.3069832027,0.3605502248,-0.2414957881,-0.1092090085,0.04650465026,-0.09416742623,-0.3698328435,0.3238427639,-0.05954518542,-0.2628295422,0.09247722477,0.03595944494,0.5825933218,0.1715593934,0.3494659662,-0.436717391,-0.1285964102,-0.2653626204,-0.07271746546,-0.0661790669,0.3788081706,0.425324738,-0.0213543959,-0.6539203525,0.1113592461,-0.05045131966,0.04188227654,0.350613445,-0.2030100971,-0.234707281,-0.01973959059
ๅ,0.1740977615,-0.3599517345,-0.1775127351,-0.06103589386,-0.3022336662,-0.1004245803,-0.6417010427,-0.2835384607,-0.307725817,-0.005251323804,0.07138122618,-0.168567583,-0.1885265112,-0.02969527803,0.04885127395,-0.1018614098,0.3724328876,0.5072664022,-0.224581629,-0.01415629778,-0.2243649215,-0.309915483,-0.1966183484,-0.03595636413,-0.2091867179,0.07643236965,-0.1893395633,-0.1751957387,-0.4484219849,-0.1658430398,0.0381879136,-0.4715899825,-0.06008108705,0.3956255317,0.1286543161,-0.04532937706,-0.07472693175,0.277051717,0.3282811642,-0.2587741911,-0.1250604838,0.07661771029,-0.1544398814,-0.3998100758,0.2701658607,-0.01949585788,-0.2718105018,0.09152415395,0.2121621072,0.3990967572,0.09312803298,0.3497810662,-0.4766827822,-0.2588968575,-0.03136922792,-0.1222407371,0.04500170797,0.4955344498,0.3551762104,0.09632555395,-0.563220799,0.06629616022,0.1011231691,0.08736583591,0.3370650411,-0.1659311205,-0.08699188381,0.1474509835
ุ,0.3141125441,0.3064318001,0.1240926459,-0.1265379041,0.01093500573,-0.01488849986,0.008196695708,-0.4317575693,-0.624309063,-0.1035874039,0.07773622125,-0.01437716652,-0.1137558594,0.2059259713,-0.225169763,-0.02716475166,0.4738626778,0.3508219719,0.2663534284,0.2118172348,0.115895398,-0.2306949496,0.08958037943,0.05947729573,0.1057892293,0.2771972716,-0.2654743791,0.3810196817,-0.2919536829,0.1253838837,0.05664425343,-0.06887470186,0.1302224994,0.2349559665,-0.1192380637,-0.2052544206,0.1211413518,0.1722884327,0.411796242,-0.5615623593,-0.1888959259,0.062102478,-0.1201588809,-0.06738164276,0.1576722264,0.1049441472,-0.2997509241,0.1953475028,0.2722490728,0.6071954966,0.63972193,-0.07483096421,-0.3082214296,-0.4965411723,-0.3976293802,-0.3754816651,-0.2900483906,-0.007689662743,-0.004308856558,0.3730871379,-0.6246542931,-0.2004446536,0.553616643,0.5722178221,0.1854449362,0.08406943083,0.2326334417,0.2853019536
ู,0.2399195135,-0.05956860259,-0.3581242859,-0.1526179612,-0.1717058569,0.03498673812,-0.3700236976,-0.218537122,-0.4701963365,-0.08197642863,0.1947259009,-0.08931546658,-0.0644813627,0.3155252934,0.02265479602,-0.004549345002,0.3935939074,0.7404606938,0.02374808118,0.1362612545,-0.02298885025,-0.5020284057,-0.1046272069,-0.03011918999,0.05610355362,0.2266905159,-0.2489815205,0.09308104217,-0.474819541,-0.1133790985,-0.06631822139,-0.168015793,0.2170496583,0.5648875833,-0.07786802948,-0.04240897298,0.07947123051,0.2897613049,0.2428869456,-0.2936285734,-0.3252193332,-0.3998522162,-0.1710938364,-0.394638747,0.2473586947,0.1051884443,-0.2773153484,0.05090808123,0.1951978058,0.6340337992,0.6751636863,0.1396788061,-0.3196748495,-0.2551572323,-0.3267457485,0.02668593451,-0.2523285449,0.3126699328,0.09375083447,0.08376135677,-0.8639976382,-0.05800849944,0.5307537317,0.4109617472,0.4778861403,-0.1866712868,-0.1429889351,0.3686303794
เ,0.1859485358,-0.1524271518,-0.1126997471,-0.05885379016,-0.4829907417,0.0216442477,-0.6091457605,0.1005655304,-0.03452124074,0.03925822303,-0.07338242978,-0.1382689625,-0.1347662956,0.01262377575,-0.1213665083,-0.3901701272,0.4085067809,0.6161102653,-0.2561174631,0.2101718038,-0.2839928269,-0.1761178374,0.03168927133,-0.1652035862,-0.1008454561,-0.1221356094,0.07035721838,-0.0634707883,-0.1728194207,-0.2114046067,0.01396604534,-0.200502947,0.07149951905,0.4827339649,0.09073223174,-0.1039278731,0.01710368879,0.1388015896,0.0435192585,0.04137830809,-0.09584403783,-0.07327843457,-0.01596495695,-0.136184454,0.1860520393,0.268656075,-0.09753645211,-0.2673669159,0.1493869424,0.1807566285,0.0796488449,0.1702980846,-0.2797016799,0.0425655283,0.07239167392,0.06677654386,-0.280259043,0.6038537621,0.369412899,-0.1181503385,-0.5593503714,0.1350910068,-0.05386644974,0.01627321541,0.3481602967,-0.1475252509,0.1403938532,0.1987479627
โ,0.2934319973,0.01139632799,-0.2718026042,-0.2523400784,-0.3089983165,-0.1371768862,-0.5037871003,-0.2618091404,-0.5357813835,-0.01705831476,0.02987056226,-0.06115705147,-0.05294416472,0.3206564784,-0.02664002217,-0.1673431396,0.6006788015,0.6796563864,-0.003006150946,0.2759560347,-0.1167795137,-0.4510147572,0.007117742207,-0.164980188,0.1996454,0.1157622784,-0.2248480469,0.1332285851,-0.4438717663,-0.1339539737,-0.02144499123,-0.3346912861,0.2578511536,0.7478285432,0.03804820403,-0.1763907969,0.1853336096,0.3608360887,0.3474755883,-0.3907471001,-0.1525050551,-0.3065762222,0.01770392992,-0.182377398,0.370026648,0.1632404327,-0.2577967942,-0.1478519738,0.1317976713,0.6273622513,0.569678843,0.006390898023,-0.2785568237,-0.2709931731,-0.3516524434,-0.1479989588,-0.2881319225,0.4978993237,-0.02803635597,0.04873226583,-0.7997456193,0.03344427422,0.3613924682,0.3449551165,0.3494849801,-0.1528699994,-0.008148089983,0.3410716355
แ,0.2242823094,-0.1539185494,-0.1363030821,-0.2368494123,-0.3910644054,-0.157559216,-0.6719027758,-0.00714727072,0.1019668207,-0.11155615,0.02390801907,-0.001809091773,-0.1088537872,0.009540849365,0.01838070899,-0.2791010737,0.4599896073,0.6928395629,-0.2017143071,0.1922795624,-0.1951773614,0.03508144245,0.04861864075,-0.2222652733,-0.1357507557,-0.3140810132,-0.01785208657,-0.08420059085,-0.191457659,-0.2544828653,0.02754014358,-0.1800878942,-0.05957995355,0.5641865134,0.1185619012,0.08091466874,0.03238222748,0.2165839821,0.1989175826,0.2035448402,-0.2079268843,-0.03928774968,0.02180788107,-0.06702512503,0.06243975088,0.2897045314,-0.2889032662,-0.2525697947,0.1326494068,0.2229640782,0.02955922671,-0.03704178706,-0.1523206085,0.09424547851,0.05683809519,0.1796185821,-0.2170086503,0.5947536826,0.3645757139,-0.110700123,-0.5112682581,0.2652439773,-0.1025516093,0.09751112759,0.4170740545,-0.1175501347,-0.0004720257712,0.2186902761
ะ,0.1496212631,-0.05674431473,0.2842478454,-0.503767252,-0.3088958561,-0.1574419439,-0.3933925629,-0.05699480325,0.09015547484,-0.2018978596,0.1751371324,-0.1205524728,-0.06955726445,-0.07041506469,-0.1553140134,-0.2702524364,0.6253374219,0.2700535059,-0.1358651519,0.2606073618,-0.2707657814,0.2807459235,0.1761990786,0.0462192893,-0.1335142851,-0.3361567855,-0.1703417152,0.2355814576,-0.1061078608,-0.1883912683,0.2423140258,-0.008088750765,0.09868514538,0.4792551994,0.2054659128,-0.1104648858,-0.08361665159,0.1387775689,0.5188314319,-0.02057379112,-0.2397048771,0.3364876211,0.08353845775,0.3452745974,-0.04255371168,0.09926381707,-0.1439087242,-0.1128779352,0.1029940173,0.05546687543,0.002404383849,-0.3660463989,-0.1480586082,-0.2186322063,0.0949197039,-0.1461172551,-0.08042741567,0.1468526125,0.05912063643,-0.02604330145,-0.4960585237,0.01008999068,-0.03552415594,0.1418967396,0.0006603957154,0.1068972126,0.1772893071,0.3387362361
ั,0.1699665189,-0.1486538798,0.2983597815,-0.4193714857,-0.2373295873,-0.2122871429,-0.3997494876,0.02480900288,0.157174021,-0.1033035442,0.05392734334,-0.2179583907,0.02092097513,-0.03644829616,-0.1196020469,-0.1672914475,0.5057779551,0.4507425725,-0.1856497228,0.1360191256,-0.1853075624,0.1956067234,0.110958308,0.07011403143,-0.1473562866,-0.3418144584,-0.2809523344,0.2267797291,0.01221221406,-0.2867235541,0.1858513504,0.05760155618,0.08322305977,0.4761056602,0.2814978361,-0.05166153982,-0.1591300964,-0.007261428982,0.5440363884,-0.03036130965,-0.07789937407,0.4230214953,0.1448397338,0.3259088397,-0.174380511,0.1205043346,-0.2127283812,0.01828941517,0.103699021,0.07892389596,0.04155727476,-0.4166372716,-0.1086013019,-0.2194152921,-0.0630370751,-0.2626684308,0.008334279992,0.2363093793,0.0592877157,-0.1151028201,-0.5759624839,0.03358029202,-0.1325337738,0.1164841428,0.1755916178,0.1656543463,0.1328760982,0.3883149028
า,0.1889038384,-0.3218548,-0.04785493389,-0.3949341178,-0.4581033885,-0.1971270293,-0.7038720846,0.003262762912,0.09599678963,-0.3333460987,0.1250088066,-0.2339247465,-0.1147020459,0.1116468161,-0.1480115652,-0.2297436893,0.5456722379,0.6434749365,-0.1359118819,0.316705972,-0.3835235834,0.02152915485,0.1223783419,-0.1600800306,-0.1018334925,-0.3384042382,-0.01301629562,0.08382094651,-0.2366127074,-0.2400708497,0.01838908345,-0.1784113348,-0.05941738188,0.5563970804,0.3114643693,0.2162556201,-0.06191797927,0.2060426921,0.2400447279,0.2408508658,-0.2691552937,0.0435118936,0.3011674583,0.04944195971,-0.003882456338,0.1498911679,-0.1528752744,-0.3402559459,0.08892555535,0.05286221951,0.01933855377,-0.01241129078,-0.04267769307,0.1083515137,0.0830969885,0.1761973351,-0.2861635387,0.6415726542,0.1720244735,-0.1011535078,-0.6583184004,0.150792852,-0.1179045066,0.05631316453,0.3035074472,-0.03213347495,0.01670921408,0.3123872578
ำ,0.2418853939,0.04058657959,0.3420419097,-0.4671821296,-0.128701508,-0.2537746131,-0.3184709251,-0.003569836728,-0.001934575615,-0.2824697793,0.2420400232,-0.3198705614,-0.07787923515,-0.05217067152,-0.1124619693,-0.3019243479,0.6421245933,0.3727017045,0.1009744927,0.2280996889,-0.3024325371,0.2055188417,0.2562510073,-0.08316172659,-0.2781553268,-0.2525857687,-0.05989415199,0.2717066407,-0.2117144763,-0.02957211062,0.11570362,0.1147602424,-0.128369242,0.4903870821,-0.000322797132,0.07274202257,-0.1031993255,0.07036369294,0.3327389956,-0.09938678145,-0.1971726716,0.3298819959,0.0007843103958,0.4721968472,-0.09445054084,0.1034582555,-0.09032032639,-0.1474695206,-0.04092574492,0.08178636432,-0.03773894161,-0.233984828,-0.1216020286,-0.03484646976,-0.1070184857,-0.1771838069,-0.2523401082,0.1831844002,0.05211213604,0.042061463,-0.4957039952,0.04822748527,-0.08552009612,0.1558295041,-0.03100896627,0.1629057229,0.1584034115,0.2108030021
ใ,0.287252903,0.07553007454,0.3322916031,-0.3134166002,-0.01202106848,-0.1236580014,-0.2832728624,-0.2227935344,0.1237770841,-0.3814105093,0.3707663715,-0.1932405531,-0.1883518994,-0.04520440474,-0.0781160295,-0.04945239052,0.6470766068,0.2458541691,0.1298291087,0.2744845748,-0.3096262813,0.2144216597,0.2002967596,0.04493921623,-0.3637475669,-0.01634957083,-0.01150374301,0.1167730987,-0.1388407946,-0.08748041093,0.1471771747,0.03951176628,0.02392971329,0.3796926141,0.1213815734,0.197281599,-0.3222394884,0.1366598755,0.5137681961,0.001321871532,-0.2569836676,0.4196021855,0.1131454557,0.4420351982,0.09352668375,0.1572613269,0.01581309177,-0.1753882617,0.06720962375,0.1323307455,-0.05926069617,-0.3495183289,-0.04057016969,-0.03917538747,-0.08453742415,0.1482038349,-0.242888689,0.1326166987,-0.1309765726,0.03598980233,-0.5552247167,-0.07119781524,-0.132845208,0.222442314,-0.04875186831,0.2647721171,0.02150190808,0.4495993257
ไ,0.253605336,-0.009060798213,0.3487163782,-0.2467921972,0.06733573973,-0.1798711717,-0.4177787304,-0.1611809283,0.1010432541,-0.2567318678,0.3369876444,-0.3582468331,-0.145520106,-0.04442986101,-0.08574014157,-0.1870574653,0.5619912148,0.1841778904,0.01984438486,0.4469563961,-0.2368580401,0.1232920736,0.281272471,0.04843724519,-0.3268330097,0.001010089763,-0.1568663418,0.1542339027,-0.09799590707,-0.08922034502,0.3131401241,0.1909902096,-0.06264641881,0.4275991917,-0.007785512134,0.190173462,-0.3657012582,0.03301426768,0.3521673679,0.04008206725,-0.2452718616,0.3707690239,0.2519560456,0.4600103199,0.07354391366,0.06331495941,-0.007163885515,-0.2993344665,-0.006249378901,0.06175113469,0.1548658758,-0.181566596,-0.1774449199,-0.1062423587,-0.068630822,0.06463207304,-0.1662250608,0.2866071165,-0.02413184382,0.168791458,-0.5740089417,-0.1008416414,-0.2828005552,0.1626265794,0.002226670505,0.2305915207,0.0364892967,0.3158919811
็,-0.1414149106,0.008428660221,0.2179139107,-0.130747512,-0.2870202959,0.1758346707,-0.4748632312,-0.179551214,-0.1056305096,0.1006353274,-0.1812016815,0.0605244562,-0.191598922,0.09006215632,-0.3106172979,-0.2894275486,0.1241955757,0.4828470051,-0.08846844733,0.1799751222,0.07288496941,0.252952069,-0.0496324487,-0.09981033951,-0.08235480636,-0.3161732852,-0.02695381269,-0.1335559338,0.1271702796,-0.1972062439,0.05781005695,-0.06799667329,-0.03337581456,0.247601226,0.08183384687,-0.1007567644,-0.08196440339,0.2382404655,0.03841141239,-0.1967360079,0.1502925903,0.02613675781,-0.1507771015,-0.04496506602,0.05149684474,0.1896950901,-0.02568890154,0.0879503265,0.09910007566,0.009615643881,0.07764925063,0.2342941165,-0.1118830964,-0.1568509191,0.2594158947,-0.09965227544,0.04643541202,0.2903347015,0.3047088385,-0.01957052946,-0.273468703,-0.1458466947,-0.1468029767,0.1681438684,0.01323459949,0.06646822393,0.3350346386,0.0773627758
่,-0.1476180404,-0.06282896549,-0.3176894784,-0.1424905658,0.06950598955,-0.1935914755,-0.2635563314,0.1370505989,0.3715295494,-0.2227717936,-0.0176272057,0.2348525375,0.3107492328,0.1259261817,-0.4249987304,-0.3355322778,0.03725957498,0.0439196825,-0.1699147224,0.05645877123,-0.1107491553,0.4502890408,0.2567978501,0.3189266622,0.2186269462,-0.1192346513,0.08524441719,-0.0855859071,0.3137080967,0.1349588037,0.1582424343,-0.04660138488,0.04938221723,0.1612438262,0.1203669906,-0.655182898,0.002109409776,0.0130222803,0.01867373474,0.1612608284,0.02557532117,-0.05920227617,-0.2491404861,0.005191407166,0.286416322,-0.01786135137,0.3530890644,0.3011057079,0.3860851228,0.3112120926,-0.2378628403,-0.1597310007,0.2300144136,-0.3322463632,-0.3716188669,-0.2077390999,-0.1118299812,0.01210451405,0.4299527705,0.309012413,-0.1800598949,-0.1674349755,0.005447702948,0.3055771589,0.2333785892,-0.2315897197,0.0994611159,-0.4586347044
้,-0.2526248991,-0.2318294793,-0.2701399028,-0.05145268515,0.2812255621,-0.3216754496,-0.365475595,0.08477531374,0.4287070334,-0.224793002,-0.03624592721,0.0904943496,0.2577568293,0.0248884242,-0.3478874266,-0.1476117522,-0.005104740616,0.08770810068,-0.04413218424,0.05396961793,-0.1250785738,0.2969275117,0.0720031783,0.2853032351,0.07272761315,-0.0951442495,-0.08821798116,-0.04429025576,0.3280415535,0.1079526618,0.2392598093,0.04761911556,0.1482759416,-0.004704443738,0.2168380022,-0.5675256252,0.235602513,-0.03552230075,-0.1818197221,0.1363389939,0.1765957475,0.06524796784,-0.2363833487,0.05102742463,0.2278912067,-0.1668733358,0.3987891376,0.1840668619,0.4626687765,0.3822050691,-0.1081902832,-0.1827401519,0.1267208308,-0.2679417729,-0.5215884447,-0.3232697248,-0.3033128679,0.2124490738,0.6115668416,0.574418664,-0.1002068073,-0.08685566485,-0.02642130665,0.1652441472,0.1475346684,-0.2977214158,0.07849424332,-0.4320673645
๊,-0.08366939425,-0.251704812,-0.1439403743,-0.1221480295,0.2411349267,-0.2694290578,-0.3704879582,0.1210486889,0.4415153861,-0.1720918715,-0.002874520374,0.1894077957,0.4367002845,-0.04657064006,-0.4711905122,-0.2738708854,-0.2116186172,0.1136016995,-0.03629710525,0.03615690023,-0.08617708832,0.3917432725,0.3408381939,0.336779505,0.1896936446,-0.01091921609,0.03746093437,-0.1906123012,0.3760609925,-0.0003666656266,0.1680028588,-0.07507262379,-0.03464944288,0.06881162524,0.2541433275,-0.6219625473,0.3128629029,0.1835986078,-0.0004945254186,0.2838166356,0.1127918139,0.06140566245,-0.1599157006,-0.07667923719,0.4150245488,-0.0126535045,0.3448967338,0.2610860467,0.3236341476,0.4079087675,-0.2349430174,-0.3096170425,0.1253984123,-0.3858126402,-0.3824956119,-0.2849430144,-0.3706764579,0.1690067351,0.4817167222,0.6496585608,-0.09003850073,-0.1527734399,0.04782298952,0.1009674594,0.22164689,-0.2498707324,-0.08455539495,-0.5099903941
๋,-0.1356434524,-0.2466614395,-0.2837212086,-0.07456374168,0.1850853413,-0.1954331696,-0.4009361863,0.1806039959,0.3586072326,-0.3219155371,0.07372096926,0.1703674942,0.5346288681,0.140961647,-0.5035042763,-0.2396550924,-0.1186783016,0.06971366704,0.0654662028,0.07889672369,-0.1521569937,0.3632869422,0.2875495553,0.3300701976,0.1543989331,0.1016734317,-0.08929430693,-0.08743540943,0.3474945128,0.02964195795,0.333504647,0.1160486639,0.1229894534,-0.1033660173,0.2579826117,-0.6440063119,0.376717627,0.1272338182,-0.2040405422,0.2463718951,-0.008943947032,-0.1279526055,-0.1407289207,-0.1039003134,0.3866971731,-0.1446094066,0.3300074339,0.1170323193,0.4661162198,0.4248892963,-0.3919485211,-0.4793039858,0.3347073495,-0.4616714716,-0.6616014242,-0.2583820522,-0.429795891,0.3062622845,0.6381516457,0.5302829146,-0.0699358806,-0.02735967375,-0.1069135889,0.3318492174,0.2837481797,-0.2606600821,0.1296220422,-0.5934785604
์,-0.282095015,-0.3046752214,-0.09368879348,-0.1274242252,-0.1005255878,-0.1046754345,-0.2819295228,0.05434911698,0.04462651536,-0.009818295948,-0.08979656547,0.01758316904,0.03520463035,0.1040182188,-0.3412632346,-0.2907118499,0.08384566754,-0.05925643072,-0.2566522658,0.09105990082,-0.02769658715,0.1378767043,-0.06328330934,-0.1197144389,0.0001163041015,-0.2085034847,0.1016233936,0.08310364187,0.1761599928,-0.2215631306,0.1337726414,-0.2331785411,0.08740064502,0.04540336132,0.1061903611,-0.4080833495,-0.04206543043,-0.04636929184,0.139484942,0.1657820791,0.1946290582,0.1105281115,-0.2820771039,-0.01762378961,0.06168824062,0.05000625551,0.1585155427,0.1025579199,0.4147951305,-0.05771642178,-0.02156558447,0.05179256946,0.009800050408,-0.185290128,-0.2623678744,-0.2888036668,0.01383098774,0.0367846936,0.3969967067,-0.08147799224,-0.1738190204,0.07450069487,-0.06039883941,0.1451343149,0.1772670299,0.205621779,0.1568224132,-0.05761775374